
J48 pruned tree
------------------

outlook = sunny
|   humidity = high: no (3.0)
|   humidity = normal: yes (2.0)
outlook = overcast: yes (4.0)
outlook = rainy
|   windy = TRUE: no (2.0)
|   windy = FALSE: yes (3.0)

Number of Leaves  : 	5

Size of the tree : 	8


Time taken to build model: 0.04 seconds
Time taken to test model on training data: 0.01 seconds

=== Error on training data ===

Correctly Classified Instances          14              100      %
Incorrectly Classified Instances         0                0      %
Kappa statistic                          1     
Mean absolute error                      0     
Root mean squared error                  0     
Relative absolute error                  0      %
Root relative squared error              0      %
Total Number of Instances               14     


=== Detailed Accuracy By Class ===

               TP Rate   FP Rate   Precision   Recall  F-Measure   ROC Area  Class
                 1         0          1         1         1          1        yes
                 1         0          1         1         1          1        no
Weighted Avg.    1         0          1         1         1          1    


=== Confusion Matrix ===

 a b   <-- classified as
 9 0 | a = yes
 0 5 | b = no



=== Stratified cross-validation ===

Correctly Classified Instances           7               50      %
Incorrectly Classified Instances         7               50      %
Kappa statistic                         -0.0426
Mean absolute error                      0.4167
Root mean squared error                  0.5984
Relative absolute error                 87.5    %
Root relative squared error            121.2987 %
Total Number of Instances               14     


=== Detailed Accuracy By Class ===

               TP Rate   FP Rate   Precision   Recall  F-Measure   ROC Area  Class
                 0.556     0.6        0.625     0.556     0.588      0.633    yes
                 0.4       0.444      0.333     0.4       0.364      0.633    no
Weighted Avg.    0.5       0.544      0.521     0.5       0.508      0.633


=== Confusion Matrix ===

 a b   <-- classified as
 5 4 | a = yes
 3 2 | b = no

--- New Assistance Time Test ----------------------
2015-01-26T18:41:28-0200

J48 pruned tree
------------------

outlook = sunny
|   humidity = high: no (3.0)
|   humidity = normal: yes (2.0)
outlook = overcast: yes (4.0)
outlook = rainy
|   windy = TRUE: no (2.0)
|   windy = FALSE: yes (3.0)

Number of Leaves  : 	5

Size of the tree : 	8


Time taken to build model: 0.03 seconds
Time taken to test model on training data: 0.01 seconds

=== Error on training data ===

Correctly Classified Instances          14              100      %
Incorrectly Classified Instances         0                0      %
Kappa statistic                          1     
Mean absolute error                      0     
Root mean squared error                  0     
Relative absolute error                  0      %
Root relative squared error              0      %
Total Number of Instances               14     


=== Detailed Accuracy By Class ===

               TP Rate   FP Rate   Precision   Recall  F-Measure   ROC Area  Class
                 1         0          1         1         1          1        yes
                 1         0          1         1         1          1        no
Weighted Avg.    1         0          1         1         1          1    


=== Confusion Matrix ===

 a b   <-- classified as
 9 0 | a = yes
 0 5 | b = no



=== Stratified cross-validation ===

Correctly Classified Instances           7               50      %
Incorrectly Classified Instances         7               50      %
Kappa statistic                         -0.0426
Mean absolute error                      0.4167
Root mean squared error                  0.5984
Relative absolute error                 87.5    %
Root relative squared error            121.2987 %
Total Number of Instances               14     


=== Detailed Accuracy By Class ===

               TP Rate   FP Rate   Precision   Recall  F-Measure   ROC Area  Class
                 0.556     0.6        0.625     0.556     0.588      0.633    yes
                 0.4       0.444      0.333     0.4       0.364      0.633    no
Weighted Avg.    0.5       0.544      0.521     0.5       0.508      0.633


=== Confusion Matrix ===

 a b   <-- classified as
 5 4 | a = yes
 3 2 | b = no


J48 pruned tree
------------------

outlook = sunny
|   humidity = high: no (3.0)
|   humidity = normal: yes (2.0)
outlook = overcast: yes (4.0)
outlook = rainy
|   windy = TRUE: no (2.0)
|   windy = FALSE: yes (3.0)

Number of Leaves  : 	5

Size of the tree : 	8


Time taken to build model: 0.03 seconds
Time taken to test model on training data: 0.01 seconds

=== Error on training data ===

Correctly Classified Instances          14              100      %
Incorrectly Classified Instances         0                0      %
Kappa statistic                          1     
Mean absolute error                      0     
Root mean squared error                  0     
Relative absolute error                  0      %
Root relative squared error              0      %
Total Number of Instances               14     


=== Detailed Accuracy By Class ===

               TP Rate   FP Rate   Precision   Recall  F-Measure   ROC Area  Class
                 1         0          1         1         1          1        yes
                 1         0          1         1         1          1        no
Weighted Avg.    1         0          1         1         1          1    


=== Confusion Matrix ===

 a b   <-- classified as
 9 0 | a = yes
 0 5 | b = no



=== Stratified cross-validation ===

Correctly Classified Instances           7               50      %
Incorrectly Classified Instances         7               50      %
Kappa statistic                         -0.0426
Mean absolute error                      0.4167
Root mean squared error                  0.5984
Relative absolute error                 87.5    %
Root relative squared error            121.2987 %
Total Number of Instances               14     


=== Detailed Accuracy By Class ===

               TP Rate   FP Rate   Precision   Recall  F-Measure   ROC Area  Class
                 0.556     0.6        0.625     0.556     0.588      0.633    yes
                 0.4       0.444      0.333     0.4       0.364      0.633    no
Weighted Avg.    0.5       0.544      0.521     0.5       0.508      0.633


=== Confusion Matrix ===

 a b   <-- classified as
 5 4 | a = yes
 3 2 | b = no


J48 pruned tree
------------------

outlook = sunny
|   humidity = high: no (3.0)
|   humidity = normal: yes (2.0)
outlook = overcast: yes (4.0)
outlook = rainy
|   windy = TRUE: no (2.0)
|   windy = FALSE: yes (3.0)

Number of Leaves  : 	5

Size of the tree : 	8


Time taken to build model: 0.03 seconds
Time taken to test model on training data: 0.01 seconds

=== Error on training data ===

Correctly Classified Instances          14              100      %
Incorrectly Classified Instances         0                0      %
Kappa statistic                          1     
Mean absolute error                      0     
Root mean squared error                  0     
Relative absolute error                  0      %
Root relative squared error              0      %
Total Number of Instances               14     


=== Detailed Accuracy By Class ===

               TP Rate   FP Rate   Precision   Recall  F-Measure   ROC Area  Class
                 1         0          1         1         1          1        yes
                 1         0          1         1         1          1        no
Weighted Avg.    1         0          1         1         1          1    


=== Confusion Matrix ===

 a b   <-- classified as
 9 0 | a = yes
 0 5 | b = no



=== Stratified cross-validation ===

Correctly Classified Instances           7               50      %
Incorrectly Classified Instances         7               50      %
Kappa statistic                         -0.0426
Mean absolute error                      0.4167
Root mean squared error                  0.5984
Relative absolute error                 87.5    %
Root relative squared error            121.2987 %
Total Number of Instances               14     


=== Detailed Accuracy By Class ===

               TP Rate   FP Rate   Precision   Recall  F-Measure   ROC Area  Class
                 0.556     0.6        0.625     0.556     0.588      0.633    yes
                 0.4       0.444      0.333     0.4       0.364      0.633    no
Weighted Avg.    0.5       0.544      0.521     0.5       0.508      0.633


=== Confusion Matrix ===

 a b   <-- classified as
 5 4 | a = yes
 3 2 | b = no


J48 pruned tree
------------------

outlook = sunny
|   humidity = high: no (3.0)
|   humidity = normal: yes (2.0)
outlook = overcast: yes (4.0)
outlook = rainy
|   windy = TRUE: no (2.0)
|   windy = FALSE: yes (3.0)

Number of Leaves  : 	5

Size of the tree : 	8


Time taken to build model: 0.03 seconds
Time taken to test model on training data: 0.01 seconds

=== Error on training data ===

Correctly Classified Instances          14              100      %
Incorrectly Classified Instances         0                0      %
Kappa statistic                          1     
Mean absolute error                      0     
Root mean squared error                  0     
Relative absolute error                  0      %
Root relative squared error              0      %
Total Number of Instances               14     


=== Detailed Accuracy By Class ===

               TP Rate   FP Rate   Precision   Recall  F-Measure   ROC Area  Class
                 1         0          1         1         1          1        yes
                 1         0          1         1         1          1        no
Weighted Avg.    1         0          1         1         1          1    


=== Confusion Matrix ===

 a b   <-- classified as
 9 0 | a = yes
 0 5 | b = no



=== Stratified cross-validation ===

Correctly Classified Instances           7               50      %
Incorrectly Classified Instances         7               50      %
Kappa statistic                         -0.0426
Mean absolute error                      0.4167
Root mean squared error                  0.5984
Relative absolute error                 87.5    %
Root relative squared error            121.2987 %
Total Number of Instances               14     


=== Detailed Accuracy By Class ===

               TP Rate   FP Rate   Precision   Recall  F-Measure   ROC Area  Class
                 0.556     0.6        0.625     0.556     0.588      0.633    yes
                 0.4       0.444      0.333     0.4       0.364      0.633    no
Weighted Avg.    0.5       0.544      0.521     0.5       0.508      0.633


=== Confusion Matrix ===

 a b   <-- classified as
 5 4 | a = yes
 3 2 | b = no


J48 pruned tree
------------------

outlook = sunny
|   humidity = high: no (3.0)
|   humidity = normal: yes (2.0)
outlook = overcast: yes (4.0)
outlook = rainy
|   windy = TRUE: no (2.0)
|   windy = FALSE: yes (3.0)

Number of Leaves  : 	5

Size of the tree : 	8


Time taken to build model: 0.04 seconds
Time taken to test model on training data: 0.01 seconds

=== Error on training data ===

Correctly Classified Instances          14              100      %
Incorrectly Classified Instances         0                0      %
Kappa statistic                          1     
Mean absolute error                      0     
Root mean squared error                  0     
Relative absolute error                  0      %
Root relative squared error              0      %
Total Number of Instances               14     


=== Detailed Accuracy By Class ===

               TP Rate   FP Rate   Precision   Recall  F-Measure   ROC Area  Class
                 1         0          1         1         1          1        yes
                 1         0          1         1         1          1        no
Weighted Avg.    1         0          1         1         1          1    


=== Confusion Matrix ===

 a b   <-- classified as
 9 0 | a = yes
 0 5 | b = no



=== Stratified cross-validation ===

Correctly Classified Instances           7               50      %
Incorrectly Classified Instances         7               50      %
Kappa statistic                         -0.0426
Mean absolute error                      0.4167
Root mean squared error                  0.5984
Relative absolute error                 87.5    %
Root relative squared error            121.2987 %
Total Number of Instances               14     


=== Detailed Accuracy By Class ===

               TP Rate   FP Rate   Precision   Recall  F-Measure   ROC Area  Class
                 0.556     0.6        0.625     0.556     0.588      0.633    yes
                 0.4       0.444      0.333     0.4       0.364      0.633    no
Weighted Avg.    0.5       0.544      0.521     0.5       0.508      0.633


=== Confusion Matrix ===

 a b   <-- classified as
 5 4 | a = yes
 3 2 | b = no


J48 pruned tree
------------------

outlook = sunny
|   humidity = high: no (3.0)
|   humidity = normal: yes (2.0)
outlook = overcast: yes (4.0)
outlook = rainy
|   windy = TRUE: no (2.0)
|   windy = FALSE: yes (3.0)

Number of Leaves  : 	5

Size of the tree : 	8


Time taken to build model: 0.03 seconds
Time taken to test model on training data: 0.01 seconds

=== Error on training data ===

Correctly Classified Instances          14              100      %
Incorrectly Classified Instances         0                0      %
Kappa statistic                          1     
Mean absolute error                      0     
Root mean squared error                  0     
Relative absolute error                  0      %
Root relative squared error              0      %
Total Number of Instances               14     


=== Detailed Accuracy By Class ===

               TP Rate   FP Rate   Precision   Recall  F-Measure   ROC Area  Class
                 1         0          1         1         1          1        yes
                 1         0          1         1         1          1        no
Weighted Avg.    1         0          1         1         1          1    


=== Confusion Matrix ===

 a b   <-- classified as
 9 0 | a = yes
 0 5 | b = no



=== Stratified cross-validation ===

Correctly Classified Instances           7               50      %
Incorrectly Classified Instances         7               50      %
Kappa statistic                         -0.0426
Mean absolute error                      0.4167
Root mean squared error                  0.5984
Relative absolute error                 87.5    %
Root relative squared error            121.2987 %
Total Number of Instances               14     


=== Detailed Accuracy By Class ===

               TP Rate   FP Rate   Precision   Recall  F-Measure   ROC Area  Class
                 0.556     0.6        0.625     0.556     0.588      0.633    yes
                 0.4       0.444      0.333     0.4       0.364      0.633    no
Weighted Avg.    0.5       0.544      0.521     0.5       0.508      0.633


=== Confusion Matrix ===

 a b   <-- classified as
 5 4 | a = yes
 3 2 | b = no


J48 pruned tree
------------------

outlook = sunny
|   humidity = high: no (3.0)
|   humidity = normal: yes (2.0)
outlook = overcast: yes (4.0)
outlook = rainy
|   windy = TRUE: no (2.0)
|   windy = FALSE: yes (3.0)

Number of Leaves  : 	5

Size of the tree : 	8


Time taken to build model: 0.04 seconds
Time taken to test model on training data: 0.01 seconds

=== Error on training data ===

Correctly Classified Instances          14              100      %
Incorrectly Classified Instances         0                0      %
Kappa statistic                          1     
Mean absolute error                      0     
Root mean squared error                  0     
Relative absolute error                  0      %
Root relative squared error              0      %
Total Number of Instances               14     


=== Detailed Accuracy By Class ===

               TP Rate   FP Rate   Precision   Recall  F-Measure   ROC Area  Class
                 1         0          1         1         1          1        yes
                 1         0          1         1         1          1        no
Weighted Avg.    1         0          1         1         1          1    


=== Confusion Matrix ===

 a b   <-- classified as
 9 0 | a = yes
 0 5 | b = no



=== Stratified cross-validation ===

Correctly Classified Instances           7               50      %
Incorrectly Classified Instances         7               50      %
Kappa statistic                         -0.0426
Mean absolute error                      0.4167
Root mean squared error                  0.5984
Relative absolute error                 87.5    %
Root relative squared error            121.2987 %
Total Number of Instances               14     


=== Detailed Accuracy By Class ===

               TP Rate   FP Rate   Precision   Recall  F-Measure   ROC Area  Class
                 0.556     0.6        0.625     0.556     0.588      0.633    yes
                 0.4       0.444      0.333     0.4       0.364      0.633    no
Weighted Avg.    0.5       0.544      0.521     0.5       0.508      0.633


=== Confusion Matrix ===

 a b   <-- classified as
 5 4 | a = yes
 3 2 | b = no


J48 pruned tree
------------------

outlook = sunny
|   humidity = high: no (3.0)
|   humidity = normal: yes (2.0)
outlook = overcast: yes (4.0)
outlook = rainy
|   windy = TRUE: no (2.0)
|   windy = FALSE: yes (3.0)

Number of Leaves  : 	5

Size of the tree : 	8


Time taken to build model: 0.04 seconds
Time taken to test model on training data: 0.01 seconds

=== Error on training data ===

Correctly Classified Instances          14              100      %
Incorrectly Classified Instances         0                0      %
Kappa statistic                          1     
Mean absolute error                      0     
Root mean squared error                  0     
Relative absolute error                  0      %
Root relative squared error              0      %
Total Number of Instances               14     


=== Detailed Accuracy By Class ===

               TP Rate   FP Rate   Precision   Recall  F-Measure   ROC Area  Class
                 1         0          1         1         1          1        yes
                 1         0          1         1         1          1        no
Weighted Avg.    1         0          1         1         1          1    


=== Confusion Matrix ===

 a b   <-- classified as
 9 0 | a = yes
 0 5 | b = no



=== Stratified cross-validation ===

Correctly Classified Instances           7               50      %
Incorrectly Classified Instances         7               50      %
Kappa statistic                         -0.0426
Mean absolute error                      0.4167
Root mean squared error                  0.5984
Relative absolute error                 87.5    %
Root relative squared error            121.2987 %
Total Number of Instances               14     


=== Detailed Accuracy By Class ===

               TP Rate   FP Rate   Precision   Recall  F-Measure   ROC Area  Class
                 0.556     0.6        0.625     0.556     0.588      0.633    yes
                 0.4       0.444      0.333     0.4       0.364      0.633    no
Weighted Avg.    0.5       0.544      0.521     0.5       0.508      0.633


=== Confusion Matrix ===

 a b   <-- classified as
 5 4 | a = yes
 3 2 | b = no


J48 pruned tree
------------------

outlook = sunny
|   humidity = high: no (3.0)
|   humidity = normal: yes (2.0)
outlook = overcast: yes (4.0)
outlook = rainy
|   windy = TRUE: no (2.0)
|   windy = FALSE: yes (3.0)

Number of Leaves  : 	5

Size of the tree : 	8


Time taken to build model: 0.03 seconds
Time taken to test model on training data: 0.01 seconds

=== Error on training data ===

Correctly Classified Instances          14              100      %
Incorrectly Classified Instances         0                0      %
Kappa statistic                          1     
Mean absolute error                      0     
Root mean squared error                  0     
Relative absolute error                  0      %
Root relative squared error              0      %
Total Number of Instances               14     


=== Detailed Accuracy By Class ===

               TP Rate   FP Rate   Precision   Recall  F-Measure   ROC Area  Class
                 1         0          1         1         1          1        yes
                 1         0          1         1         1          1        no
Weighted Avg.    1         0          1         1         1          1    


=== Confusion Matrix ===

 a b   <-- classified as
 9 0 | a = yes
 0 5 | b = no



=== Stratified cross-validation ===

Correctly Classified Instances           7               50      %
Incorrectly Classified Instances         7               50      %
Kappa statistic                         -0.0426
Mean absolute error                      0.4167
Root mean squared error                  0.5984
Relative absolute error                 87.5    %
Root relative squared error            121.2987 %
Total Number of Instances               14     


=== Detailed Accuracy By Class ===

               TP Rate   FP Rate   Precision   Recall  F-Measure   ROC Area  Class
                 0.556     0.6        0.625     0.556     0.588      0.633    yes
                 0.4       0.444      0.333     0.4       0.364      0.633    no
Weighted Avg.    0.5       0.544      0.521     0.5       0.508      0.633


=== Confusion Matrix ===

 a b   <-- classified as
 5 4 | a = yes
 3 2 | b = no


J48 pruned tree
------------------

outlook = sunny
|   humidity = high: no (3.0)
|   humidity = normal: yes (2.0)
outlook = overcast: yes (4.0)
outlook = rainy
|   windy = TRUE: no (2.0)
|   windy = FALSE: yes (3.0)

Number of Leaves  : 	5

Size of the tree : 	8


Time taken to build model: 0.03 seconds
Time taken to test model on training data: 0.01 seconds

=== Error on training data ===

Correctly Classified Instances          14              100      %
Incorrectly Classified Instances         0                0      %
Kappa statistic                          1     
Mean absolute error                      0     
Root mean squared error                  0     
Relative absolute error                  0      %
Root relative squared error              0      %
Total Number of Instances               14     


=== Detailed Accuracy By Class ===

               TP Rate   FP Rate   Precision   Recall  F-Measure   ROC Area  Class
                 1         0          1         1         1          1        yes
                 1         0          1         1         1          1        no
Weighted Avg.    1         0          1         1         1          1    


=== Confusion Matrix ===

 a b   <-- classified as
 9 0 | a = yes
 0 5 | b = no



=== Stratified cross-validation ===

Correctly Classified Instances           7               50      %
Incorrectly Classified Instances         7               50      %
Kappa statistic                         -0.0426
Mean absolute error                      0.4167
Root mean squared error                  0.5984
Relative absolute error                 87.5    %
Root relative squared error            121.2987 %
Total Number of Instances               14     


=== Detailed Accuracy By Class ===

               TP Rate   FP Rate   Precision   Recall  F-Measure   ROC Area  Class
                 0.556     0.6        0.625     0.556     0.588      0.633    yes
                 0.4       0.444      0.333     0.4       0.364      0.633    no
Weighted Avg.    0.5       0.544      0.521     0.5       0.508      0.633


=== Confusion Matrix ===

 a b   <-- classified as
 5 4 | a = yes
 3 2 | b = no

